<?xml version="1.0"?>
<opencv_storage>
<stage5>
  <maxWeakCount>8</maxWeakCount>
  <stageThreshold>-9.2507201433181763e-01</stageThreshold>
  <weakClassifiers>
    <_>
      <internalNodes>
        0 -1 4683890 -1.6799416393041611e-02</internalNodes>
      <leafValues>
        -8.4158414602279663e-01 4.0772533416748047e-01</leafValues></_>
    <_>
      <internalNodes>
        0 -1 6454199 2.3980671539902687e-03</internalNodes>
      <leafValues>
        -5.1540166139602661e-01 3.3983036875724792e-01</leafValues></_>
    <_>
      <internalNodes>
        0 -1 4701538 -2.0683859474956989e-03</internalNodes>
      <leafValues>
        -6.4530646800994873e-01 2.4033766984939575e-01</leafValues></_>
    <_>
      <internalNodes>
        0 -1 5044363 -1.1845896951854229e-03</internalNodes>
      <leafValues>
        5.4674637317657471e-01 -3.2351753115653992e-01</leafValues></_>
    <_>
      <internalNodes>
        0 -1 4698147 3.8587670132983476e-05</internalNodes>
      <leafValues>
        -7.9083502292633057e-01 1.7374499142169952e-01</leafValues></_>
    <_>
      <internalNodes>
        0 -1 4084304 -4.9095286522060633e-04</internalNodes>
      <leafValues>
        -7.9764395952224731e-01 1.7521730065345764e-01</leafValues></_>
    <_>
      <internalNodes>
        0 -1 5649671 -3.6085729952901602e-03</internalNodes>
      <leafValues>
        3.8376343250274658e-01 -3.9450696110725403e-01</leafValues></_>
    <_>
      <internalNodes>
        0 -1 3802023 8.3545949310064316e-03</internalNodes>
      <leafValues>
        1.9697295129299164e-01 -9.5314520597457886e-01</leafValues></_></weakClassifiers></stage5>
</opencv_storage>
