<?xml version="1.0"?>
<opencv_storage>
<stage9>
  <maxWeakCount>14</maxWeakCount>
  <stageThreshold>-1.1006723642349243e+00</stageThreshold>
  <weakClassifiers>
    <_>
      <internalNodes>
        0 -1 5260425 -3.0204997165128589e-04</internalNodes>
      <leafValues>
        -9.1566264629364014e-01 3.8493722677230835e-01</leafValues></_>
    <_>
      <internalNodes>
        0 -1 5352490 9.7936969250440598e-03</internalNodes>
      <leafValues>
        2.4692666530609131e-01 -7.0892697572708130e-01</leafValues></_>
    <_>
      <internalNodes>
        0 -1 3905524 3.2420802745036781e-04</internalNodes>
      <leafValues>
        -5.0784629583358765e-01 2.4004739522933960e-01</leafValues></_>
    <_>
      <internalNodes>
        0 -1 5408030 -2.0106103271245956e-02</internalNodes>
      <leafValues>
        -6.9002789258956909e-01 2.0145356655120850e-01</leafValues></_>
    <_>
      <internalNodes>
        0 -1 4036258 -6.9838156923651695e-03</internalNodes>
      <leafValues>
        -7.4293857812881470e-01 1.8934766948223114e-01</leafValues></_>
    <_>
      <internalNodes>
        0 -1 5469973 1.6145035624504089e-04</internalNodes>
      <leafValues>
        -3.1800976395606995e-01 4.4049942493438721e-01</leafValues></_>
    <_>
      <internalNodes>
        0 -1 5363712 -8.3921395707875490e-04</internalNodes>
      <leafValues>
        8.1069934368133545e-01 -3.0844452977180481e-01</leafValues></_>
    <_>
      <internalNodes>
        0 -1 3814211 -8.4848627448081970e-03</internalNodes>
      <leafValues>
        3.7913200259208679e-01 -3.8101661205291748e-01</leafValues></_>
    <_>
      <internalNodes>
        0 -1 5039103 1.5414209337905049e-03</internalNodes>
      <leafValues>
        2.1731796860694885e-01 -9.1006606817245483e-01</leafValues></_>
    <_>
      <internalNodes>
        0 -1 7015338 -5.4948786273598671e-03</internalNodes>
      <leafValues>
        7.1073669195175171e-01 -2.1676273643970490e-01</leafValues></_>
    <_>
      <internalNodes>
        0 -1 4770371 -1.5026264009065926e-04</internalNodes>
      <leafValues>
        -6.1275863647460938e-01 2.0660023391246796e-01</leafValues></_>
    <_>
      <internalNodes>
        0 -1 5898652 3.2067974098026752e-03</internalNodes>
      <leafValues>
        -1.9843105971813202e-01 6.7987173795700073e-01</leafValues></_>
    <_>
      <internalNodes>
        0 -1 4556535 -5.7470728643238544e-04</internalNodes>
      <leafValues>
        -7.0899015665054321e-01 1.9599173963069916e-01</leafValues></_>
    <_>
      <internalNodes>
        0 -1 6259438 -1.9468067912384868e-03</internalNodes>
      <leafValues>
        6.5312260389328003e-01 -2.2103998064994812e-01</leafValues></_></weakClassifiers></stage9>
</opencv_storage>
