<?xml version="1.0"?>
<opencv_storage>
<stage3>
  <maxWeakCount>11</maxWeakCount>
  <stageThreshold>-1.3150550127029419e+00</stageThreshold>
  <weakClassifiers>
    <_>
      <internalNodes>
        0 -1 4676318 1.0363989276811481e-03</internalNodes>
      <leafValues>
        4.3147209286689758e-01 -8.8235294818878174e-01</leafValues></_>
    <_>
      <internalNodes>
        0 -1 6531602 3.6318250931799412e-03</internalNodes>
      <leafValues>
        -5.8154726028442383e-01 3.3101874589920044e-01</leafValues></_>
    <_>
      <internalNodes>
        0 -1 4924721 -7.6566904317587614e-04</internalNodes>
      <leafValues>
        -7.6992666721343994e-01 2.4836304783821106e-01</leafValues></_>
    <_>
      <internalNodes>
        0 -1 4081169 5.6435996666550636e-03</internalNodes>
      <leafValues>
        1.8603008985519409e-01 -8.8386058807373047e-01</leafValues></_>
    <_>
      <internalNodes>
        0 -1 3914574 -1.5292892232537270e-02</internalNodes>
      <leafValues>
        -9.1833817958831787e-01 1.3844858109951019e-01</leafValues></_>
    <_>
      <internalNodes>
        0 -1 5456187 1.5014264499768615e-04</internalNodes>
      <leafValues>
        -3.6328852176666260e-01 5.0317078828811646e-01</leafValues></_>
    <_>
      <internalNodes>
        0 -1 4218809 -6.9568841718137264e-04</internalNodes>
      <leafValues>
        -8.0212646722793579e-01 1.9721332192420959e-01</leafValues></_>
    <_>
      <internalNodes>
        0 -1 4068198 -3.0376638751477003e-03</internalNodes>
      <leafValues>
        1.7470130324363708e-01 -8.1859791278839111e-01</leafValues></_>
    <_>
      <internalNodes>
        0 -1 3422728 -9.4280336052179337e-03</internalNodes>
      <leafValues>
        -6.9982671737670898e-01 2.5596094131469727e-01</leafValues></_>
    <_>
      <internalNodes>
        0 -1 5228423 8.1136904191225767e-04</internalNodes>
      <leafValues>
        1.8768879771232605e-01 -8.0033612251281738e-01</leafValues></_>
    <_>
      <internalNodes>
        0 -1 6709991 -2.6913965120911598e-03</internalNodes>
      <leafValues>
        -7.7929657697677612e-01 1.8523904681205750e-01</leafValues></_></weakClassifiers></stage3>
</opencv_storage>
