<?xml version="1.0"?>
<opencv_storage>
<stage10>
  <maxWeakCount>8</maxWeakCount>
  <stageThreshold>-1.4330885410308838e+00</stageThreshold>
  <weakClassifiers>
    <_>
      <internalNodes>
        0 -1 5951088 2.0854120521107689e-05</internalNodes>
      <leafValues>
        -4.1242939233779907e-01 7.7578473091125488e-01</leafValues></_>
    <_>
      <internalNodes>
        0 -1 4054062 9.5087790396064520e-04</internalNodes>
      <leafValues>
        5.3121173381805420e-01 -8.0842530727386475e-01</leafValues></_>
    <_>
      <internalNodes>
        0 -1 5762864 1.6172692994587123e-05</internalNodes>
      <leafValues>
        -4.4809138774871826e-01 8.1853014230728149e-01</leafValues></_>
    <_>
      <internalNodes>
        0 -1 5041678 2.9550411272794008e-04</internalNodes>
      <leafValues>
        -3.9431831240653992e-01 8.2222098112106323e-01</leafValues></_>
    <_>
      <internalNodes>
        0 -1 5245723 -4.0801194700179622e-05</internalNodes>
      <leafValues>
        7.5850117206573486e-01 -3.9153185486793518e-01</leafValues></_>
    <_>
      <internalNodes>
        0 -1 5494250 -5.6623136624693871e-03</internalNodes>
      <leafValues>
        8.9316296577453613e-01 -3.2780006527900696e-01</leafValues></_>
    <_>
      <internalNodes>
        0 -1 5745530 8.4418838378041983e-04</internalNodes>
      <leafValues>
        -4.8554712533950806e-01 6.4225870370864868e-01</leafValues></_>
    <_>
      <internalNodes>
        0 -1 4711470 -2.6256823912262917e-04</internalNodes>
      <leafValues>
        -6.5710991621017456e-01 4.9541786313056946e-01</leafValues></_></weakClassifiers></stage10>
</opencv_storage>
