<?xml version="1.0"?>
<opencv_storage>
<stage4>
  <maxWeakCount>11</maxWeakCount>
  <stageThreshold>-1.1294847726821899e+00</stageThreshold>
  <weakClassifiers>
    <_>
      <internalNodes>
        0 -1 6902275 1.9721060991287231e-02</internalNodes>
      <leafValues>
        4.3197026848793030e-01 -7.0980393886566162e-01</leafValues></_>
    <_>
      <internalNodes>
        0 -1 6771671 -1.7816185718402267e-03</internalNodes>
      <leafValues>
        -8.0627316236495972e-01 2.4597443640232086e-01</leafValues></_>
    <_>
      <internalNodes>
        0 -1 5859117 -7.1950547862797976e-05</internalNodes>
      <leafValues>
        1.6345427930355072e-01 -8.4416300058364868e-01</leafValues></_>
    <_>
      <internalNodes>
        0 -1 3830345 -6.5524230012670159e-04</internalNodes>
      <leafValues>
        -8.6809295415878296e-01 1.6973999142646790e-01</leafValues></_>
    <_>
      <internalNodes>
        0 -1 6661635 6.1727985739707947e-03</internalNodes>
      <leafValues>
        -2.6247087121009827e-01 7.4639940261840820e-01</leafValues></_>
    <_>
      <internalNodes>
        0 -1 4280767 1.1366619728505611e-03</internalNodes>
      <leafValues>
        -4.3523347377777100e-01 3.7061178684234619e-01</leafValues></_>
    <_>
      <internalNodes>
        0 -1 4894917 9.1436710208654404e-03</internalNodes>
      <leafValues>
        1.6018183529376984e-01 -9.2015832662582397e-01</leafValues></_>
    <_>
      <internalNodes>
        0 -1 3965356 -2.9519904637709260e-04</internalNodes>
      <leafValues>
        -9.2868912220001221e-01 1.2759886682033539e-01</leafValues></_>
    <_>
      <internalNodes>
        0 -1 5545233 8.8599999435245991e-04</internalNodes>
      <leafValues>
        -4.8958668112754822e-01 2.8945192694664001e-01</leafValues></_>
    <_>
      <internalNodes>
        0 -1 3433828 4.1392538696527481e-04</internalNodes>
      <leafValues>
        2.2723051905632019e-01 -7.4589896202087402e-01</leafValues></_>
    <_>
      <internalNodes>
        0 -1 4549171 -1.0602582246065140e-02</internalNodes>
      <leafValues>
        -8.7719106674194336e-01 1.1796386539936066e-01</leafValues></_></weakClassifiers></stage4>
</opencv_storage>
