<?xml version="1.0"?>
<opencv_storage>
<stage17>
  <maxWeakCount>5</maxWeakCount>
  <stageThreshold>-1.4578858613967896e+00</stageThreshold>
  <weakClassifiers>
    <_>
      <internalNodes>
        0 -1 3524026 -1.4280246570706367e-02</internalNodes>
      <leafValues>
        -9.0052354335784912e-01 6.1083745956420898e-01</leafValues></_>
    <_>
      <internalNodes>
        0 -1 6693315 6.1631402932107449e-03</internalNodes>
      <leafValues>
        4.0100148320198059e-01 -8.7763833999633789e-01</leafValues></_>
    <_>
      <internalNodes>
        0 -1 4399217 1.9142854958772659e-02</internalNodes>
      <leafValues>
        3.1909364461898804e-01 -8.1199091672897339e-01</leafValues></_>
    <_>
      <internalNodes>
        0 -1 5268776 1.1341564822942019e-03</internalNodes>
      <leafValues>
        -3.9831531047821045e-01 6.5528833866119385e-01</leafValues></_>
    <_>
      <internalNodes>
        0 -1 5768482 1.6881097690202296e-04</internalNodes>
      <leafValues>
        -6.6314363479614258e-01 3.9949777722358704e-01</leafValues></_></weakClassifiers></stage17>
</opencv_storage>
