<?xml version="1.0"?>
<opencv_storage>
<stage15>
  <maxWeakCount>5</maxWeakCount>
  <stageThreshold>-1.2817158699035645e+00</stageThreshold>
  <weakClassifiers>
    <_>
      <internalNodes>
        0 -1 4207839 -1.3634524075314403e-03</internalNodes>
      <leafValues>
        -8.1531530618667603e-01 6.5916955471038818e-01</leafValues></_>
    <_>
      <internalNodes>
        0 -1 5366269 2.2975399042479694e-04</internalNodes>
      <leafValues>
        -3.1622284650802612e-01 6.4962667226791382e-01</leafValues></_>
    <_>
      <internalNodes>
        0 -1 5041622 1.1963734868913889e-04</internalNodes>
      <leafValues>
        -3.6912101507186890e-01 5.0813758373260498e-01</leafValues></_>
    <_>
      <internalNodes>
        0 -1 4125549 -2.4694010615348816e-02</internalNodes>
      <leafValues>
        -9.0230214595794678e-01 1.9531758129596710e-01</leafValues></_>
    <_>
      <internalNodes>
        0 -1 3689215 -6.3839852809906006e-03</internalNodes>
      <leafValues>
        -9.0619236230850220e-01 1.5539586544036865e-01</leafValues></_></weakClassifiers></stage15>
</opencv_storage>
