<?xml version="1.0"?>
<opencv_storage>
<stage4>
  <maxWeakCount>5</maxWeakCount>
  <stageThreshold>-7.8822779655456543e-01</stageThreshold>
  <weakClassifiers>
    <_>
      <internalNodes>
        0 -1 211574 -1705771073 212173287 4431906 34447488 -998194982
        -2147418111 -1610579838 -74824886</internalNodes>
      <leafValues>
        -7.2500002384185791e-01 6.6785717010498047e-01</leafValues></_>
    <_>
      <internalNodes>
        0 -1 205278 1888346795 2138377037 -901775217 1918640941
        -1610309203 -2101346172 -637488647 -166137720</internalNodes>
      <leafValues>
        -6.9615632295608521e-01 6.5038245916366577e-01</leafValues></_>
    <_>
      <internalNodes>
        0 -1 155185 184619671 -586072048 268456213 856686600 -939342933
        -83230720 172683 995639496</internalNodes>
      <leafValues>
        -6.6822701692581177e-01 6.7371159791946411e-01</leafValues></_>
    <_>
      <internalNodes>
        0 -1 190137 -702610227 1593934165 -1992211369 17634436 16925578
        -1434288128 -2147450720 -104228608</internalNodes>
      <leafValues>
        -6.8632715940475464e-01 6.6070002317428589e-01</leafValues></_>
    <_>
      <internalNodes>
        0 -1 122749 -754450209 -385679356 268570647 1342771341 553668770
        -1063190270 1350601675 -72650365</internalNodes>
      <leafValues>
        -7.0099467039108276e-01 6.4865136146545410e-01</leafValues></_></weakClassifiers></stage4>
</opencv_storage>
