<?xml version="1.0"?>
<opencv_storage>
<stage2>
  <maxWeakCount>8</maxWeakCount>
  <stageThreshold>-1.0419348478317261e+00</stageThreshold>
  <weakClassifiers>
    <_>
      <internalNodes>
        0 -1 5239899 5.2561918273568153e-03</internalNodes>
      <leafValues>
        -7.8947371244430542e-01 4.7528517246246338e-01</leafValues></_>
    <_>
      <internalNodes>
        0 -1 4702856 -1.4036154374480247e-02</internalNodes>
      <leafValues>
        -8.5180968046188354e-01 2.4640250205993652e-01</leafValues></_>
    <_>
      <internalNodes>
        0 -1 4659210 -6.3729519024491310e-03</internalNodes>
      <leafValues>
        -8.8200742006301880e-01 1.6715860366821289e-01</leafValues></_>
    <_>
      <internalNodes>
        0 -1 4530438 1.0006317868828773e-02</internalNodes>
      <leafValues>
        3.0292245745658875e-01 -8.2731258869171143e-01</leafValues></_>
    <_>
      <internalNodes>
        0 -1 6010830 6.4028827473521233e-03</internalNodes>
      <leafValues>
        -4.8045215010643005e-01 4.7127681970596313e-01</leafValues></_>
    <_>
      <internalNodes>
        0 -1 4930590 -3.4030977985821664e-04</internalNodes>
      <leafValues>
        -9.5355790853500366e-01 1.9878064095973969e-01</leafValues></_>
    <_>
      <internalNodes>
        0 -1 5153465 3.8736950955353677e-04</internalNodes>
      <leafValues>
        1.9446995854377747e-01 -8.1700950860977173e-01</leafValues></_>
    <_>
      <internalNodes>
        0 -1 4561387 -2.4535484611988068e-02</internalNodes>
      <leafValues>
        -8.6978375911712646e-01 1.7042987048625946e-01</leafValues></_></weakClassifiers></stage2>
</opencv_storage>
